Language model created by QuickLM on Sun Jan 22 00:20:58 EST 2017
Copyright (c) 1996-2010 Carnegie Mellon University and Alexander I. Rudnicky

The model is in standard ARPA format, designed by Doug Paul while he was at MITRE.

The code that was used to produce this language model is available in Open Source.
Please visit http://www.speech.cs.cmu.edu/tools/ for more information

The (fixed) discount mass is 0.5. The backoffs are computed using the ratio method.
This model based on a corpus of 18 sentences and 86 words

\data\
ngram 1=86
ngram 2=119
ngram 3=113

\1-grams:
-1.2247 </s> -0.3010
-1.2247 <s> -0.2635
-2.4800 aakar -0.2996
-1.6349 aap -0.2908
-2.4800 aapne -0.2996
-2.4800 aapse -0.2996
-2.4800 aate -0.2938
-2.4800 aati -0.2938
-2.4800 aaunga -0.2743
-2.4800 ab -0.2952
-2.4800 abse -0.2908
-2.4800 agle -0.2996
-2.4800 aisa -0.2996
-2.4800 apne -0.2996
-2.1790 aur -0.2981
-2.4800 baar -0.2996
-2.4800 barabar -0.2996
-2.4800 bhi -0.2996
-2.4800 chakkar -0.2996
-2.4800 chalna -0.2981
-2.4800 clinic -0.2952
-2.4800 dard -0.2981
-2.4800 dein -0.2743
-2.4800 der -0.2981
-2.1790 dhanyawaad -0.2743
-2.4800 dhyan -0.2996
-2.4800 dijiye -0.2743
-2.4800 din -0.2996
-2.4800 dino -0.2996
-2.4800 doo -0.2996
-2.4800 ek -0.2996
-2.4800 foran -0.2967
-2.1790 haa -0.2981
-2.0029 haan -0.2908
-1.7810 hai -0.2743
-1.8779 ho -0.2728
-2.4800 hona -0.2996
-2.4800 hu -0.2743
-2.4800 hui -0.2996
-2.4800 injection -0.2996
-2.4800 isliye -0.2908
-2.4800 jyada -0.2996
-2.1790 ka -0.2967
-2.1790 kaam -0.2981
-2.1790 kabhi -0.2967
-2.4800 kaise -0.2952
-2.4800 kam -0.2967
-2.4800 kamzori -0.2996
-2.0029 kar -0.2967
-2.4800 kara -0.2996
-2.4800 karna -0.2996
-2.4800 kha -0.2996
-2.4800 khaan-paan -0.2996
-2.4800 khana -0.2996
-2.4800 ko -0.2996
-2.4800 koshish -0.2967
-2.4800 kuchh -0.2996
-2.1790 kya -0.2908
-2.4800 lein -0.2743
-2.4800 liya -0.2938
-2.4800 mahine -0.2996
-2.4800 mehnat -0.2981
-2.4800 mehsoos -0.2952
-1.8779 mein -0.2952
-2.4800 milne -0.2996
-2.4800 mujhe -0.2996
-2.1790 nahi -0.2713
-2.1790 namaskar -0.2879
-2.4800 pahle -0.2996
-2.4800 pait -0.2952
-2.4800 par -0.2981
-2.4800 pe -0.2996
-2.4800 raha -0.2938
-2.4800 rahe -0.2952
-2.4800 rahi -0.2996
-2.4800 sa -0.2996
-2.4800 sakte -0.2952
-2.4800 se -0.2996
-2.1790 sir -0.2728
-2.4800 swabhavik -0.2938
-2.4800 tetanus -0.2981
-2.4800 thi -0.2743
-2.4800 toh -0.2908
-2.4800 ulti -0.2981
-2.4800 ye -0.2981
-2.1790 zyada -0.2981

\2-grams:
-1.5563 <s> aap -0.2688
-1.5563 <s> aapne 0.0000
-1.5563 <s> ab 0.0000
-1.5563 <s> abse 0.0000
-1.2553 <s> dhanyawaad 0.0000
-1.2553 <s> haa 0.0000
-1.0792 <s> haan 0.0000
-1.2553 <s> kya 0.0000
-1.5563 <s> nahi -0.1761
-1.2553 <s> namaskar 0.0000
-1.5563 <s> toh 0.0000
-1.5563 <s> ulti 0.0000
-0.3010 aakar kara 0.0000
-1.1461 aap apne 0.0000
-1.1461 aap clinic 0.0000
-1.1461 aap jyada 0.0000
-1.1461 aap kaise 0.0000
-1.1461 aap khana 0.0000
-1.1461 aap ko 0.0000
-1.1461 aap ye 0.0000
-0.3010 aapne tetanus 0.0000
-0.3010 aapse agle 0.0000
-0.3010 aate hai 0.0000
-0.3010 aati hai 0.0000
-0.3010 aaunga </s> -0.3010
-0.3010 ab mein -0.2430
-0.3010 abse aap -0.2688
-0.3010 agle mahine 0.0000
-0.3010 aisa hona 0.0000
-0.3010 apne khaan-paan 0.0000
-0.6021 aur kamzori 0.0000
-0.6021 aur mehnat 0.0000
-0.3010 baar hui 0.0000
-0.3010 barabar kha 0.0000
-0.3010 bhi aate 0.0000
-0.3010 chakkar bhi 0.0000
-0.3010 chalna aur -0.1761
-0.3010 clinic mein -0.2430
-0.3010 dard aur -0.1761
-0.3010 dein </s> -0.3010
-0.3010 der nahi -0.1761
-0.3010 dhanyawaad </s> -0.3010
-0.3010 dhyan dijiye 0.0000
-0.3010 dijiye </s> -0.3010
-0.3010 din pahle 0.0000
-0.3010 dino se 0.0000
-0.3010 doo din 0.0000
-0.3010 ek baar 0.0000
-0.3010 foran kar -0.2218
-0.6021 haa aisa 0.0000
-0.6021 haa isliye 0.0000
-0.7782 haan doo 0.0000
-0.7782 haan kabhi -0.1761
-0.7782 haan mein -0.2430
-0.3010 hai </s> -0.3010
-0.4260 ho </s> -0.3010
-0.9031 ho raha 0.0000
-0.3010 hona swabhavik 0.0000
-0.3010 hu </s> -0.3010
-0.3010 hui thi 0.0000
-0.3010 injection liya 0.0000
-0.3010 isliye aap -0.2688
-0.3010 jyada chalna 0.0000
-0.6021 ka injection 0.0000
-0.6021 ka kaam -0.1761
-0.6021 kaam foran 0.0000
-0.6021 kaam karna 0.0000
-0.6021 kabhi kabhi -0.1761
-0.6021 kabhi par 0.0000
-0.3010 kaise ho -0.0969
-0.3010 kam kar -0.2218
-0.3010 kamzori sa 0.0000
-0.7782 kar dein 0.0000
-0.7782 kar lein 0.0000
-0.7782 kar rahi 0.0000
-0.3010 kara sakte 0.0000
-0.3010 karna kam 0.0000
-0.3010 kha rahe 0.0000
-0.3010 khaan-paan pe 0.0000
-0.3010 khana barabar 0.0000
-0.3010 ko chakkar 0.0000
-0.3010 koshish kar -0.2218
-0.3010 kuchh dino 0.0000
-0.3010 kya aap -0.2341
-0.3010 lein </s> -0.3010
-0.3010 liya hai 0.0000
-0.3010 mahine milne 0.0000
-0.3010 mehnat ka -0.1761
-0.3010 mehsoos ho -0.2430
-0.9031 mein aakar 0.0000
-0.9031 mein aapse 0.0000
-0.9031 mein dard 0.0000
-0.9031 mein koshish 0.0000
-0.3010 milne aaunga 0.0000
-0.3010 mujhe kuchh 0.0000
-0.6021 nahi </s> -0.3010
-0.6021 nahi sir -0.1761
-0.6021 namaskar aap -0.2688
-0.6021 namaskar sir -0.1761
-0.3010 pahle ek 0.0000
-0.3010 pait mein -0.2430
-0.3010 par zyada -0.1761
-0.3010 pe dhyan 0.0000
-0.3010 raha hai 0.0000
-0.3010 rahe ho -0.0969
-0.3010 rahi hu 0.0000
-0.3010 sa mehsoos 0.0000
-0.3010 sakte ho -0.0969
-0.3010 se pait 0.0000
-0.6021 sir </s> -0.3010
-0.6021 sir mujhe 0.0000
-0.3010 swabhavik hai 0.0000
-0.3010 tetanus ka -0.1761
-0.3010 thi </s> -0.3010
-0.3010 toh aap -0.2688
-0.3010 ulti zyada -0.1761
-0.3010 ye kaam -0.1761
-0.6021 zyada aati 0.0000
-0.6021 zyada der 0.0000

\3-grams:
-0.3010 <s> aap clinic
-0.3010 <s> aapne tetanus
-0.3010 <s> ab mein
-0.3010 <s> abse aap
-0.3010 <s> dhanyawaad </s>
-0.6021 <s> haa aisa
-0.6021 <s> haa isliye
-0.7782 <s> haan doo
-0.7782 <s> haan kabhi
-0.7782 <s> haan mein
-0.3010 <s> kya aap
-0.3010 <s> nahi sir
-0.6021 <s> namaskar aap
-0.6021 <s> namaskar sir
-0.3010 <s> toh aap
-0.3010 <s> ulti zyada
-0.3010 aakar kara sakte
-0.3010 aap apne khaan-paan
-0.3010 aap clinic mein
-0.3010 aap jyada chalna
-0.3010 aap kaise ho
-0.3010 aap khana barabar
-0.3010 aap ko chakkar
-0.3010 aap ye kaam
-0.3010 aapne tetanus ka
-0.3010 aapse agle mahine
-0.3010 aate hai </s>
-0.3010 aati hai </s>
-0.3010 ab mein aapse
-0.3010 abse aap jyada
-0.3010 agle mahine milne
-0.3010 aisa hona swabhavik
-0.3010 apne khaan-paan pe
-0.3010 aur kamzori sa
-0.3010 aur mehnat ka
-0.3010 baar hui thi
-0.3010 barabar kha rahe
-0.3010 bhi aate hai
-0.3010 chakkar bhi aate
-0.3010 chalna aur mehnat
-0.3010 clinic mein aakar
-0.3010 dard aur kamzori
-0.3010 der nahi </s>
-0.3010 dhyan dijiye </s>
-0.3010 din pahle ek
-0.3010 dino se pait
-0.3010 doo din pahle
-0.3010 ek baar hui
-0.3010 foran kar lein
-0.3010 haa aisa hona
-0.3010 haa isliye aap
-0.3010 haan doo din
-0.3010 haan kabhi kabhi
-0.3010 haan mein koshish
-0.3010 ho raha hai
-0.3010 hona swabhavik hai
-0.3010 hui thi </s>
-0.3010 injection liya hai
-0.3010 isliye aap apne
-0.3010 jyada chalna aur
-0.3010 ka injection liya
-0.3010 ka kaam karna
-0.3010 kaam foran kar
-0.3010 kaam karna kam
-0.3010 kabhi kabhi par
-0.3010 kabhi par zyada
-0.3010 kaise ho </s>
-0.3010 kam kar dein
-0.3010 kamzori sa mehsoos
-0.3010 kar dein </s>
-0.3010 kar lein </s>
-0.3010 kar rahi hu
-0.3010 kara sakte ho
-0.3010 karna kam kar
-0.3010 kha rahe ho
-0.3010 khaan-paan pe dhyan
-0.3010 khana barabar kha
-0.3010 ko chakkar bhi
-0.3010 koshish kar rahi
-0.3010 kuchh dino se
-0.6021 kya aap khana
-0.6021 kya aap ko
-0.3010 liya hai </s>
-0.3010 mahine milne aaunga
-0.3010 mehnat ka kaam
-0.3010 mehsoos ho raha
-0.3010 mein aakar kara
-0.3010 mein aapse agle
-0.3010 mein dard aur
-0.3010 mein koshish kar
-0.3010 milne aaunga </s>
-0.3010 mujhe kuchh dino
-0.3010 nahi sir </s>
-0.3010 namaskar aap kaise
-0.3010 namaskar sir mujhe
-0.3010 pahle ek baar
-0.3010 pait mein dard
-0.3010 par zyada der
-0.3010 pe dhyan dijiye
-0.3010 raha hai </s>
-0.3010 rahe ho </s>
-0.3010 rahi hu </s>
-0.3010 sa mehsoos ho
-0.3010 sakte ho </s>
-0.3010 se pait mein
-0.3010 sir mujhe kuchh
-0.3010 swabhavik hai </s>
-0.3010 tetanus ka injection
-0.3010 toh aap ye
-0.3010 ulti zyada aati
-0.3010 ye kaam foran
-0.3010 zyada aati hai
-0.3010 zyada der nahi

\end\
